0.2562, -0.108216, 0.150947, 0.239579, 0.112986, 0.14443, -0.074599, -0.274708, 0.096885, -0.086272, -0.171614, 0.094002, -0.039017, -0.019548, -0.229742, -0.091486, -0.121174, 0.259974, 0.117176, -0.048956, -0.084866, -0.147546, 0.150205, 0.01623, 0.331778, 0.052348, 0.001628, 0.037674, -0.088749, 0.181189, 0.087402, 0.246994, 0.035624, 0.004244, -0.204374, 0.084655, 0.03452, 0.187865, 0.051136, -0.090914, -0.150259, 0.203792, -0.055802, -0.240013, -0.107281, -0.06688, -0.29651, 0.556593, -0.176726, 0.239815, -0.163663, 0.011815, -0.128627, 0.198711, 0.38699, -0.077013, -0.081786, 0.091292, 0.075536, -0.075722, 0.051196, 0.127337, -0.020259, 0.044856, 0.091358, -0.031159, 0.155905, -0.069525, 0.218427, -0.136754, 0.078639, 0.09254, -0.196222, 0.019081, -0.156293, 0.408416, 0.066185, 0.069689, 0.200882, -0.105686, -0.174871, -0.134027, -0.096278, -0.007201, -0.129969, 0.109452, 0.099157, 0.04943, 0.075149, 0.015156, 0.061793, 0.180396, -0.048446, 0.057114, 0.049431, -0.283673, 0.249015, -0.073555, -0.21581, -0.011675, 0.21922, 0.168316, -0.137109, 0.219596, 0.225918, -0.09861, -0.271665, -0.059837, 0.094633, -0.051468, 0.194721, 0.423, 0.139898, 0.147583, 0.070754, -0.060665, -0.039085, 0.291227, -0.157624, -0.110153, -0.062279, 0.015649, -0.008987, 0.017738, 0.008436, 0.353419, 0.318879, -0.14362, -0.188921, -0.07858, -0.243279, 0.233164, -0.208805, -0.134169, -0.230619, -0.014249, 0.189318, 0.158261, -0.198892, 0.473868, -0.168584, 0.120442, 0.147522, 0.024677,
0.034369, 0.191264, -0.270208, 0.338062, 0.118605, 0.054311, 0.099312, 0.031425, -0.219996, 0.336851, 0.311096, 0.10583, 0.060914, 0.206727, 0.038825, 0.028472, 0.229308, 0.093377, -0.008664, 0.063082, 0.044349, -0.332613, 0.178228, 0.108209, 0.079749, -0.248159, 0.201913, 0.050455, 0.445991, -0.093039, -0.061468, -0.193872, -0.46736, -0.025541, 0.299982, -0.02219, 0.127866, 0.113618, -0.154692, 0.153132, 0.130231, -0.137283, 0.187338, 0.057769, -0.172671, -0.22642, 0.077596, 0.067777, 0.19777, -0.101325, -0.187501, 0.067714, 0.187285, -0.244306, 0.120153, 0.493053, 0.466615, 0.180244, 0.081095, 0.279861, 0.173731, 0.194757, 0.061853, -0.02537, 0.137177, 0.058625, -0.041451, -0.083338, 0.372558, 0.246429, 0.022739, 0.011715, -0.088589, 0.23272, 0.405363, -0.116951, -0.043333, 0.009645, 0.073675, -0.080159, 0.329207, 0.570455, 0.059109, 0.004721, -0.177412, 0.114259, -0.015577, 0.212486, -0.052156, 0.264744, -0.106952, 0.041275, -0.063703, -0.068835, 0.19528, 0.460543, -0.072873, -0.013099, 0.457594, 0.21179, -0.098314, 0.253848, 0.329181, -0.086595, 0.023769, 0.19508, -0.062588, -0.014499, 0.190024, -0.133266, 0.068707, 0.128109, 0.05744, -0.00581, 0.337963, -0.01699, -0.094031, 0.040859, -0.017264, 0.173573, 0.220861, 0.387717, -0.075806, 0.157362, 0.069494, -0.069311, 0.247195, 0.008696, 0.542376, -0.055376, -0.110994, 0.25588, -0.053922, 0.006751, 0.104153, -0.024968, 0.575179, -0.175045, -0.10924, -0.046426, -0.204936, -0.014482, -0.100361, -0.237764,
0.073109, -0.144626, -0.067403, 0.150209, 0.117339, -0.122015, 0.21307, 0.002405, 0.089063, 0.045594, 0.193524, 0.074135, 0.167869, -0.034655, -0.286668, 0.092712, -0.02367, 0.103276, 0.169485, 0.123652, -0.102181, -0.105061, 0.115691, -0.094813, -0.076098, 0.009643, -0.032346, -0.134969, 0.090151, -0.081673, 0.083831, -0.065147, 0.1916, 0.167746, 0.123801, 0.113665, -0.120413, 0.0838, -0.154062, 0.009708, -0.011769, 0.241263, 0.15213, 0.161019, 0.065006, -0.033282, 0.002029, -0.213015, 0.110862, -0.033449, -0.154909, -0.156243, -0.000904, 0.222972, 0.04096, 0.257352, -0.166878, -0.15274, 0.031187, -0.14918, -0.082677, -0.039634, 0.042763, 0.042484, -0.090796, 0.216334, 0.206694, 0.112515, 0.01234, -0.064438, 0.288452, 0.251358, 0.041676, 0.18118, -0.064478, 0.26555, 0.135782, -0.085517, -0.032791, 0.031226, 0.058717, 0.420219, -0.195599, 0.058149, -0.060859, -0.094839, -0.238372, 0.230242, -0.027777, -0.009772, 0.2866, -0.057456, 0.117452, -0.046815, -0.103337, 0.148659, 0.380537, -0.049089, 0.00014, 0.349458, 0.591323, 0.117225, 0.130326, 0.104224, 0.177105, -0.043278, -0.093455, 0.394733, -0.106235, 0.130567, 0.245136, -0.148425, 0.324511, 0.270876, 0.145362, 0.004719, 0.08165, -0.154354, -0.221515, 0.099947, 0.052626, 0.43478, 0.041089, 0.190341, -0.089417, 0.112739, -0.002107, 0.542072, -0.111643, 0.212246, 0.169051, -0.114513, 0.240697, 0.167258, 0.273518, -0.077469, 0.023701, 0.195149, -0.090939, -0.01139, -0.022493, 0.014598, -0.093046, 0.038961,
0.434335, -0.016773, -0.030668, -0.000872, -0.008185, 0.028428, 0.008351, -0.037452, -0.000786, -0.16301, -0.007814, -0.046821,